0
-0.003618704
0.026998838
-0.06385454
-0.004980705
-0.01584448
-0.011467202
0.20199065
0.035567597
-0.002010562
-0.008357221
-0.005797571
-0.0025394594
0.0006642001
-0.0073088454
-0.03031891
0.0012641987
-0.009241493
-0.0012110036
-0.013308255
-0.052792124
0.001647768
0.00063640525
-0.0020913584
-0.016001485
-0.018545337
-3.2676566e-05
-0.013018186
-0.010642653
-0.007949832
-0.0073348
-0.003531992
0.016400522
-0.014853207
-0.0034773552
-0.001547755
-0.037478305
0.046882544
-0.005708467
-0.0090725655
0.014923011
-0.006296554
-0.0027182726
-0.008658616
0.009075991
-0.015465452
-0.0005471993
-0.0027694304
-0.00056323374
-0.004516587
-0.012399414
-0.008548734
0.0032972575
-0.03505536
-0.0065098344
-0.0005144938
0.006033416
-0.009469916
-0.016995313
-0.0046356274
-0.01580176
0.0019151939
-0.006641865
0.023701077
-0.04943467
0.0142939845
-0.0047600307
-0.00016552412
0.08030508
-0.055328462
0.0032022458
-0.0061151576
-0.026082594
-0.011366307
-0.015516811
-0.011652494
-0.01229583
-0.008651956
-0.14635135
-0.0035514275
-0.019796152
-0.004336082
-0.00062964385
-0.0024077618
-0.012939067
-0.043309364
0.025067186
0.063543625
0.013908003
-0.012867109
-0.0037289914
-0.004563141
-0.0075586187
-0.06316298
-0.00768502
-0.006516752
0.0016818001
0.0035368993
0.0014357783
-0.017441727
-0.008961914
-0.012975878
0.0042947647
0.092916556
0.046890013
0.008392223
0.0019700266
-0.0012457262
0.13251087
-0.010072613
-0.0044866893
0.0014263497
-0.007249328
-0.0029323632
-0.009408157
-0.017476391
0.0024772382
-0.07968101
-0.0033896063
-0.0042565255
-0.06412563
-0.0123499455
0.012667164
-0.001540375
0.027139971
-0.0119112795
-0.014531441
0.00017041688
-0.012052766
-0.06508152
-0.012995964
-0.0016694445
-0.0062138755
-0.009439532
-0.0028694102
0.00581407
-0.0032841177
-0.008160155
-0.025865696
-0.06926426
0.007545701
-0.0078060436
0.012073282
-0.16353661
-0.010769191
-0.00470479
0.14796615
-0.00267799
-0.005419017
-0.0057620932
-0.012945861
-0.008677967
0.026257396
0.023732413
0.06047153
0.0071519515
-0.0011725979
0.0060051847
-0.0070773577
-0.008077829
0.045060545
0.09440525
-0.0038761
-0.016011186
-0.011657672
-0.0009868885
-0.0029640163
-0.003928518
-0.05012743
0.0040304204
-0.09737274
-0.029845895
-0.012180677
0.0029397432
-0.0053333337
-0.050778408
-0.02659431
-0.07987675
-0.0025093737
-0.010061812
-0.040476635
0.0023242373
-0.0031124842
-0.006118485
-0.0028469197
-0.003932656
0.0026030561
-0.009647403
-0.0070189238
-0.008504249
0.04938939
-0.00047023705
-0.101503275
-0.0034354774
-0.02444239
-0.012082718
-0.081309825
-0.007029781
-0.0524501
-0.0029473484
-0.11060157
0.018145097
-0.005334532
-0.001494607
-0.003318941
0.0066635534
-0.01918036
-0.00631823
-0.011978992
-0.0041132183
-0.005956409
-0.0048381323
-0.002017913
-0.009474652
0.0045972317
0.0019892047
-0.011015118
-0.013574988
-3.3688746e-05
-0.020416234
-0.00057521876
-0.0036271277
-0.017158454
-0.017992364
0.008424199
0.061778016
-0.0032592022
-0.008129575
0.0012549188
-0.007405282
0.002641888
-0.0027019319
-0.009617058
0.15723643
-0.0031839616
0.0016529324
0.00047888505
-0.0018157435
-0.0029579662
0.008646732
-0.002662973
-0.0048143016
0.048931297
-0.002051443
-0.0037302952
-0.0053920634
-0.003466261
-0.00010099668
0.0018715523
-0.032998532
-0.021788366
-0.13204663
-0.014816809
-0.004857646
-0.005265627
-0.009233877
0.07128715
-0.08519527
0.002502422
-0.0182039
-0.0049685515
-0.011420788
0.060674213
-0.0059858263
-0.0040150047
-0.017929249
-0.007883553
0.032198228
0.053897575
-0.02532109
0.018969972
-0.2587601
0.031954836
-0.00976568
-0.0066081705
0.005212776
0.0014156247
-0.035161767
-0.0077515775
-0.011883851
-0.009198223
-0.002628918
-0.0065923743
0.06389979
-0.0380008
0.03623565
0.005820235
-0.0034807895
2.0917414e-05
0.01414781
-0.006214717
0.004599945
-0.0042268215
-0.0065928064
-0.0149829285
-0.029729212
-0.0037507333
-0.010354831
0.0008638364
-0.012546399
-0.0030048783
-0.16836399
-0.00015631107
-0.0070954887
-0.009420911
-0.006912445
-0.014472789
-0.0069982596
-0.0013745974
0.012440204
-0.004801323
-0.011391794
-0.038076397
0.0006642923
-0.0028845894
-0.07280547
0.0034760376
0.035465453
-0.0024126377
-0.012878322
-0.00890886
-0.14925727
-0.0039026225
-0.010467748
-0.043210912
-0.006922446
-0.01081955
0.07872908
-0.0028410095
-0.0046809753
0.0017975633
0.010709419
-0.0025879308
-0.018048272
0.0057910816
-0.004736619
0.0018257129
-0.014310438
-0.014105028
-0.016279731
0.0064670923
-0.01090667
-0.0105112335
-0.009510879
0.00022669072
0.020404786
0.008628127
0.004464612
-0.017679546
-0.010416477
-0.004810848
0.0029201617
0.017153606
-0.009973114
-0.021046503
0.01695147
-0.0024506147
0.10533798
0.005386557
-0.01129413
-0.012538653
-0.011348858
-0.022619696
0.09503655
-0.0010726466
0.010703072
-0.04459609
-0.00033606964
0.00084185955
-0.016973285
-0.0020556161
-0.008679908
-0.0072638243
-0.0072880043
0.008361736
-0.0716909
-0.038027354
-0.02611982
-0.0010773907
0.005993008
-0.0020973377
-0.0045747072
-0.006500257
-0.0036954195
0.004548866
-0.017382631
0.027827313
-0.0006594483
-0.018481676
0.0056664897
-0.10757695
0.0013714518
-0.005413804
-0.011795988
0.029217714
-0.04924796
-0.012910785
-0.028756144
-0.007381823
-0.005021516
-0.0022767335
-0.008799044
-0.0005407105
0.009212181
0.009842586
-0.00492051
-0.0071151317
-0.008217674
-0.01371328
0.00722293
-0.0035508538
0.000198289
-0.0080227805
-0.0066339024
0.0029088992
0.00032924357
-0.0011569271
-0.0041666427
-0.008189334
0.0014991502
0.008307896
-0.08346568
-0.00051876367
-0.012631362
-0.04164847
-0.008054159
-0.007037579
0.00058711186
-0.017004173
-0.027344884
-0.009931682
0.08329228
-0.0051294835
-0.011689405
-0.014682735
0.005425899
0.060464952
-0.0016608133
-0.0017804753
-0.017792672
0.014404044
0.06604739
-0.0034785755
0.116858535
0.0029741195
0.0017214234
0.0012362228
-0.0105018085
-0.035197627
0.0058588902
0.02996058
0.004985654
-0.004866727
-0.021351662
-0.045346074
0.03648581
-0.029312514
-0.07342236
-0.002078948
-0.001998442
-0.043261178
-0.007449649
-0.0013294041
0.004190042
-0.0015690883
-0.007648292
-0.012112883
-0.0021023229
-0.0073604365
-0.007226387
0.022100769
-0.023652835
0.0037164444
-0.0037692138
-0.009452215
-0.0065740235
-0.0058873724
0.013979835
0.0021306681
-0.029619547
-0.0546624
0.025422804
-0.04645422
-0.003382303
-0.002972557
-0.0062826974
-0.0035720987
-0.0006208309
0.0045580827
0.060214277
-0.0042678304
-0.010358265
-0.03321191
-0.005784893
-0.0031455988
-0.0034416446
0.00087128
0.03764003
-0.055562556
-0.001668668
-0.0025546101
-0.012843879
-0.007863993
0.0044751726
-0.050397977
-0.00043557887
-0.009828424
-0.0009963365
0.017967831
0.024873538
-0.004022416
-0.020682357
0.0065991487
0.062259145
0.0031281323
-0.0091915885
-0.019832823
0.0003990133
-0.07787153
-0.0033668815
-0.009015651
-0.00732646
-0.000981515
-0.0011706696
0.0023991372
0.00045442488
-0.0345889
-0.10641728
-0.061110318
0.11018574
-0.008144333
0.05834934
-0.0064137923
-0.0027680176
-0.0078098774
-0.013897171
-0.011316791
-0.005691375
-0.0022118008
0.004216834
-2.4085857e-05
-0.15586892
0.0038049459
-0.012114233
-0.13820025
-0.01999828
-0.005969634
0.008084677
0.008804369
-0.050226003
-0.071413934
-0.0023414944
0.06874574
-0.006000959
-0.0019914715
-0.05284019
0.015187077
-0.018453065
-0.0068682316
-0.0058467346
-0.020644097
-0.0076774266
-0.0004050428
-0.0029250332
-0.009122749
-0.005843614
-0.010298487
0.05293672
-0.013107936
-0.017696632
-0.033176716
-0.0059215776
-0.007862282
0.025284175
-0.008062882
-0.0019544484
-0.013755011
-0.010743287
-0.005420224
-0.04459562
-0.0011329788
-0.0058104545
-0.067273915
5.2476094e-05
-0.0062905257
0.0019487072
-0.002268815
-0.014292501
-0.010297733
0.06997636
-0.018256273
-0.010073574
-0.018277682
-0.0020199365
-0.014716153
0.0035537109
-0.0026264521
-0.009689103
-0.0017656967
-0.0013438989
-0.005468555
-0.059110258
-0.00037622693
-0.05395646
0.04591006
0.0024339892
-0.006309616
0.0016686042
-0.0010157928
0.04108908
-0.0019795937
-0.016886633
0.029421639
0.0002789228
-0.008158839
-0.009137947
-0.05734079
0.049140714
-0.006344694
-0.069681995
-0.021611981
0.0050356817
-0.018273795
0.023680048
-0.03581344
-0.029853633
-0.0062126205
-0.0041005053
-0.09318281
0.00048201164
-0.0053640576
-0.006358075
-0.0052567804
0.027068822
-0.0103188045
-0.010112196
-0.10247852
-0.01173633
-0.0050982265
-0.0042050187
-0.008893978
0.10448398
0.008555337
-0.028649578
-0.064979754
-0.061957527
-0.015274993
-0.019605651
-0.0024355305
0.010655494
-0.07174967
-0.004834141
-0.0025742208
-0.003732205
-0.018330289
-0.007773788
-0.008619921
0.008755025
-0.009063788
0.0013680602
0.08974157
-0.002535786
0.0051378543
-0.007672612
-0.011035028
-0.0065834974
0.06829821
-0.0008365989
-0.037623607
0.09784192
0.056563523
-0.12820584
-0.013368997
-0.022432698
0.0014359168
0.038816743
-0.010945896
0.0086059
0.003357687
0.08816727
0.08919206
-0.07805944
-0.0038126013
-0.0049186447
-0.00076935213
-0.008266858
-0.0034111575
-0.002266195
-0.010603505
0.013826506
-0.0032721257
0.0042580524
-0.006646004
0.0036693448
0.0033011818
-0.021523984
-0.00788928
-0.012043001
-0.003909079
0.0015454517
0.06753816
0.0042028166
0.062189296
-0.0011482307
-0.18424514
-0.01022913
-0.004737415
-0.10221646
-0.049629226
-0.011514897
-0.109746054
-0.002374899
-0.00815718
-0.0051447568
0.0023629677
-0.0069207037
0.00085061823
-0.0041332953
-0.008763651
0.04214557
-0.017051078
-0.050420776
-0.10634402
-0.009703137
-0.0025836315
-0.06391372
0.016971277
0.040491074
-0.03535672
-0.037159845
-0.019481398
-0.0040743547
-0.029750457
-0.00078898354
-0.008509841
-0.00758388
-0.008832819
-0.009432611
-0.00580944
0.005968203
-0.08968967
-0.012634629
-0.0035425704
-0.013564058
-0.013475837
-0.024561383
0.028390402
-0.048086658
0.0053402185
-0.0037230905
-0.0044578398
-0.0023742653
-0.08114336
0.007445234
-0.0056703934
-0.008133226
0.0024821276
0.045237217
0.003981965
-0.002808608
0.02749627
-0.0023174756
0.013068835
-0.0012058191
0.0038594275
-0.0061948616
-0.010918568
-0.014028426
-0.015661228
