0
0.03973517
-0.08788022
-0.14005692
-0.033265237
-0.015825797
-0.014916631
-0.19733097
0.123277254
-0.0034940012
0.007333428
-0.038645312
0.18685973
-0.068280615
-0.091967635
-0.07461571
-0.0146031445
-0.024148952
-0.0659033
-0.37449333
0.022727206
-0.29635605
-0.07736533
-0.04837764
-0.18871754
-0.17018773
-0.04711214
0.080655165
-0.29257882
-0.28658408
-0.00045807884
0.03259171
-0.11178971
-0.25751528
-0.09759578
-0.08994958
-0.0052072173
-0.017847849
-0.6381968
-0.3427181
-0.25285417
-0.21995857
0.014631117
0.108183004
-0.015847737
0.07339786
-0.10589017
-0.15772879
-0.012543999
-0.093059726
0.14049697
-0.17176639
-0.08750345
-0.0017915992
-0.33243516
-0.1716125
-0.097481996
0.0049024243
-0.0567546
0.024148198
-0.061971053
-0.012067402
0.049913667
-0.20319174
-0.03210529
-0.033730872
-0.02631868
-0.17786878
0.047123425
-0.12629747
-0.27074888
-0.014421738
-0.124036655
-0.23216899
-0.05324363
0.015775317
0.02280471
-0.03426991
-0.16083725
-0.229614
-0.28368768
-0.11491966
0.1441221
-0.13117495
-0.40049988
-0.3849933
-0.32058346
-0.093306534
-0.006748191
-0.027735237
0.12238759
-0.22914688
-0.1027183
0.036156904
0.10588354
-0.11510442
0.00032104563
-0.23247567
-0.13952735
0.014818719
1.7498349e-05
0.059954587
-0.74634755
-0.2886894
-0.23431462
-0.27350605
0.004194381
0.056808747
-0.25768837
-0.2960954
-0.017335638
-0.01793474
-0.09944418
-0.23885106
-0.09713426
-0.3308319
-0.0061642923
-0.2218637
0.035087705
-0.007904423
-0.2630307
0.00012408501
-0.1657719
-0.058654174
-0.0075412192
0.010241844
-0.34736562
0.01383138
0.054371618
-0.0032478122
-0.2778804
0.103541724
-0.087800294
-0.13010204
0.013581285
0.04315454
-0.27379426
-0.19760844
-0.31403825
-0.07532864
-0.048562653
0.043700993
-0.15883048
0.096420966
-0.017626932
0.0073361443
-0.043413173
-0.027537791
-0.015261019
-0.11205448
0.026676076
-0.120909445
-0.2300069
-0.03596317
0.054671533
-0.10721487
-0.061807808
0.010536407
0.0028385096
0.01007481
-0.24835116
-0.33608538
-0.06005814
0.0012949985
0.0036081087
-0.124190316
-0.007002451
0.058741957
-0.03276983
-0.05625663
0.1024864
0.03733632
-0.46661562
0.007980564
-0.056938116
-0.17413683
-0.087728195
-0.029004876
-0.073415935
-0.081122085
-0.27018353
0.060131606
-0.23574132
-0.14063555
-0.035796035
-0.12940714
-0.34268734
-0.22486192
-0.094768055
-0.07201745
0.08032074
-0.06618258
0.08288765
-0.20450658
-0.09616745
-0.11379068
-0.046646323
-0.2455285
-0.09022559
-0.13089226
-0.07950814
-0.27561772
-0.14991082
-0.097654834
-0.07221586
-0.09872047
-0.0545167
-0.05465896
-0.006912251
0.038084913
-0.0017433353
-0.23235533
-0.0065783258
-0.20056194
0.035816424
-0.070592634
0.0050913603
-0.072148316
-0.034527995
-0.19089898
0.075480506
-0.13750969
-0.29611552
-0.03978202
-0.24057087
-0.12737332
-0.080793105
-0.012136619
-0.059943162
0.0009064073
-0.012422421
-0.044916857
-0.095953025
-0.13992497
0.07709158
0.08409732
-0.017816182
-0.25717795
0.10610616
-0.072352
-0.0017995664
0.09799332
-0.034588955
-0.18791327
-0.15598892
-0.32365528
-0.08337637
-0.17550243
-0.24841699
0.106804416
-0.16206516
-0.09850397
-0.14091523
-0.012428748
-0.07129775
-0.12473448
-0.21303901
-0.06600697
-0.199644
7.134962e-05
-0.26267803
0.028817046
-0.1142686
0.19729602
-0.033229448
-0.042455353
-0.39002672
-0.16322803
0.05808125
-0.03601299
-0.22992194
0.07902441
-0.25956467
-0.034423385
-0.21172713
-0.28708142
-0.024361426
0.10496305
-0.27902758
-0.051009357
-0.32426116
-0.46168384
-0.14770788
0.20966466
-0.19950935
-0.33571666
0.034978196
-0.10580416
-0.026277956
-0.07327175
-0.21223766
0.12828977
-0.3721061
-0.209991
-0.15181728
-0.08497545
-0.07952215
-0.28360057
-0.2040446
-0.1261304
0.03169549
-0.23887411
-0.30762017
0.06029962
-0.05880415
0.009746326
0.043659892
-0.06702186
-0.009760824
-0.07783326
-0.11458882
0.054552563
0.04019799
-0.2523438
-0.19758117
0.021379748
0.012180358
-0.31401604
-0.19953822
0.066866554
-0.09096656
-0.20908906
-0.29213032
0.10728816
-0.14541575
0.009123245
-0.08079665
-0.0041456013
0.026225554
-0.09360239
-0.12533157
-0.0012291329
0.059044883
-0.011192184
-0.016429868
0.051356293
-0.020877657
-0.02103664
-0.15466343
-0.13512199
-0.23896816
-0.30587804
-0.011602759
-0.3937039
-0.14334033
0.09474904
-0.29684657
-0.20184933
0.034154646
0.098057725
-0.033069704
-0.0287247
0.03324883
0.033364818
-0.36147183
-0.32588875
-0.32933295
-0.33243793
-0.48510158
-0.07495464
-0.0093579935
-0.035500877
-0.025717532
0.019891765
-0.33129027
-0.023779707
-0.07942735
-0.26262215
-0.24555539
-0.025313582
-0.032704446
-0.20011254
0.08031275
0.0020507723
-0.05253215
-0.25977632
0.010630323
-0.09447415
-0.07378146
-0.03854898
-0.31420156
-0.14684348
-0.0841742
-0.21422835
-0.15180199
-0.09908995
-0.019620232
-0.16855693
-0.056895062
-0.1751062
-0.07511173
-0.038476165
-0.23075175
-0.2110243
-0.16865249
-0.35627395
-0.011693013
-0.10718188
-0.008751722
-0.08440769
-0.17802636
-0.36263165
0.041719742
-0.25869012
-0.018783046
-0.24200267
0.092426285
-0.17749956
-0.023186257
-0.025401542
-0.04916656
-0.29077557
-0.16749892
-0.37933826
0.032485254
0.005661232
-0.06585771
0.00025939444
-0.37813997
-0.055410795
0.10544588
-0.26461792
-0.049145367
0.17520921
-0.2962143
-0.01622629
-0.01837811
-0.2203044
-0.09840988
-0.049157307
-0.21663548
-0.16029386
-0.009393582
0.00063732156
-0.1167859
0.059879232
-0.043121144
-0.08729521
-0.24645239
0.07784997
-0.14299753
-0.023791498
-0.04442358
0.1251183
-0.289699
-0.106522836
-0.28495005
-0.22446655
-0.14111765
0.0052423216
0.028107699
0.0478522
-0.1365589
0.06377403
-0.2409108
-0.14869861
0.07232674
-0.26677713
-0.15962914
-0.44097215
-0.03948989
0.05067653
0.05350406
-0.29072016
-0.29351038
-0.083599
-0.005579508
-0.18537702
-0.06896417
0.0025703341
0.07754639
-0.16913463
0.008228632
0.07490717
-0.16044508
-0.034503814
0.04961957
0.03569265
-0.072036736
-0.15781234
0.03716266
-0.040133387
-0.09216818
0.08915831
0.028740818
-0.032740757
-0.24349602
-0.4505052
-0.13633722
-0.028249621
0.041227315
-0.004790551
-0.07796839
0.08639507
-0.1603548
-0.3251338
-0.35214645
0.011498943
-0.06482087
-0.09812096
0.040302124
-0.19285643
-0.00453144
-0.03290567
-0.046195004
-0.019065533
-0.06845339
-0.26822314
-0.2643772
-0.18487053
-0.06109215
-0.07141492
0.034169167
-0.10141813
-0.29991296
0.33238888
-0.10093909
-0.006109855
-0.34462664
-0.3280948
-0.10832045
-0.06380237
0.09636755
-0.09624163
-0.19727536
-0.3462473
0.06107904
-0.20867375
-0.07328572
-0.11300817
0.023482502
-0.28633842
-0.019602982
0.008358288
-0.17902616
-0.23512462
0.018434133
0.030936467
0.17758921
0.064301446
0.045780044
-0.25447842
-0.08839515
-0.16611283
-0.026946679
0.011923658
-0.026260013
-0.33157012
-0.021800065
-0.054492343
-0.041468758
-0.06846854
-0.34124038
-0.40480518
0.08223468
-0.018619062
-0.02285828
-0.058974043
0.011088183
-0.16321222
-0.035554085
-0.1270505
-0.01947464
-0.29554656
-0.045756206
-0.00016103947
0.033247825
-0.108709395
-0.0031037468
-0.08719391
-0.1085274
-0.00071887404
0.026156679
-0.04518143
-0.0053719194
-0.16181564
-0.019765431
-0.0017524211
-0.20345958
-0.25764126
-0.02812531
-0.09529897
0.02949326
-0.31213516
0.04530211
-0.28399962
-0.033284534
-0.08709388
-0.17257647
-0.047093473
-0.009443488
-0.07712731
-0.075259514
-0.064089425
-0.26502666
-0.027853325
-0.108134344
-0.13445827
0.07766425
-0.016525118
0.0067852503
-0.08753355
0.031757798
-0.15451342
-0.02377282
-0.20676272
-0.0463269
-0.061428133
-0.074084185
-0.050777234
0.010198486
-0.000113881004
-0.058565512
-0.23391968
-0.091558054
-0.32100195
-0.05206077
-0.03147423
-0.1504849
0.0030556717
-0.24943936
-0.020396981
-0.22297224
-0.39558488
0.2134341
-0.026434256
-0.17713277
-0.021243436
-0.057065763
-0.17171858
0.019221622
-0.12735322
-0.030222597
-0.026378734
0.11433285
0.03581254
0.021125171
0.022065235
-0.34083968
0.07271043
-0.14087848
-0.079750195
-0.04622899
-0.044870585
-0.025689213
0.015398931
-0.1675627
-0.5200686
-0.058428448
0.029494647
-0.30877662
-0.33652854
0.08646994
-0.44580734
-0.004629185
-0.028500265
-0.04138998
-0.068461955
0.13522722
-0.032744683
-0.25781652
0.04134214
-0.19483092
-0.12976511
-0.03380761
-0.32664028
-0.37348104
-0.022780627
-0.2051434
-0.06673448
-0.22701196
-0.12026047
0.13324848
-0.098963715
-0.06776847
-0.025452038
-0.04092627
-0.43381497
-0.21107303
-0.3420634
-0.20559561
-0.11211224
-0.12252426
-0.3413759
-0.009996662
-0.0021313992
-0.3652743
-0.288652
-0.060762145
0.021894123
-0.008988943
-0.12484495
-0.32946193
-0.04079181
0.018288696
-0.021691564
-0.12555346
0.016430426
-0.08087327
-0.09157455
0.066527575
0.112107664
-0.022821398
-0.25790116
-0.1028891
-0.05434387
-0.23727243
-0.20420033
-0.1066696
-0.06162808
-0.047120746
-0.28856745
-0.0030474793
-0.1037224
-0.25663254
-0.04450763
-0.09401422
-0.100828044
-0.26574305
-0.04179522
-0.3416659
0.08009824
-0.099685565
-0.2139097
-0.16931608
-0.23855221
-0.10876168
-0.071086064
-0.1243909
-0.12082225
-0.122007206
-0.38093466
-0.034549296
-0.20671599
-0.27478045
-0.3418042
-0.2682265
-0.17779393
0.0090074465
-0.054345425
0.010754709
-0.28129947
0.03586907
-0.111400016
-0.33275887
-0.023598598
0.039263774
0.04511029
-0.04303169
0.11468265
-0.24054994
-0.102197036
-0.07008565
-0.08480391
-0.1608213
-0.029107038
-1.5904141e-06
-0.19999841
-0.19034305
-0.24712467
0.07014968
0.06910689
-0.16291167
-0.20256189
-0.021945504
-0.090132
-0.031726994
-0.34650064
-0.2573454
-0.18759425
-0.25203165
-0.03603509
-0.12814696
-0.1879327
-0.10159699
-0.049212348
-0.16302472
-0.29664293
-0.078652054
0.049262226
-0.06342679
-0.31943974
0.00084779155
-0.2697044
-0.113395214
-0.10402177
0.06347649
0.0013908232
0.01929866
-0.2259885
-0.049752917
-0.01832941
-0.0014309813
-0.32776222
0.06736851
0.12652755
0.0029851682
0.0068981154
-0.03297976
-0.021881988
0.061999906
0.05659079
0.0064376644
-0.16647883
0.03567879
-0.19250669
-0.012156713
0.044704966
0.010570881
0.14417635
-0.32287073
-0.25337738
-0.07056484
-0.10888884
-0.18532164
-0.12470343
-0.10791714
-0.39130667
-0.0043183523
-0.030359784
-0.046549153
0.2867021
-0.17505504
0.08213917
-0.1264813
-0.0074647707
-0.013867491
-0.5195462
-0.016559305
-0.16701075
0.04979341
-0.1470664
-0.1887357
-0.22296903
-0.111689955
-0.024760934
0.083217636
-0.09596656
-0.005308274
-0.025468942
-0.036178015
-0.087238714
-0.26377958
-0.14991337
0.03233779
-0.06455458
0.008266679
0.053128917
-0.15094687
-0.117491886
-0.07812529
-0.27638113
-0.22372687
-0.062487412
-0.3217817
-0.11239908
0.012243515
-0.25222966
-0.027126553
-0.2772992
-0.11281119
-0.25091806
-0.25851953
-0.004464713
-0.37125427
0.11142264
-0.15613306
0.035964932
0.11709785
-0.014995867
-0.34123194
-0.12049911
-0.1746804
-0.025332732
-0.35001567
-0.28064436
-0.075058654
0.0872692
0.003126203
-0.11936488
0.02763739
-0.14411986
0.021437488
0.07931571
-0.041704543
-0.10391532
-0.04215959
-0.039898235
-0.25265965
-0.34172317
-0.032592844
-0.07543766
0.060813837
0.15218985
-0.13415854
-0.119341135
-0.38185304
0.114527464
0.034429107
-0.16184789
-0.09918474
-0.015152736
-0.14304416
-0.004588322
-0.017689044
-0.016404474
-0.38746932
0.06485849
-0.08793612
-0.15710098
0.081319734
-0.19554223
-0.21449693
0.16302826
-0.42646748
-0.36755314
-0.095236935
-0.26857522
0.072780326
0.010334237
-0.03381587
0.011265683
-0.015503303
0.02234186
-0.29863057
-0.11699987
0.023782954
-0.046716824
-0.19315673
-0.054303534
-0.14997219
-0.0017448755
-0.00042356004
-0.04201233
0.1201404
-0.25180846
-0.072014846
-0.00543038
-0.12084719
-0.23308335
-0.03713104
0.033282902
-0.19390336
-0.10351789
-0.0111983055
0.06888911
-0.303692
-0.038068254
-0.106695086
-0.015815327
-0.27997765
-0.33176038
-0.13349442
-0.29204914
-0.018580813
-0.0068973554
-0.2805459
-0.18157479
0.0060477676
-0.039561033
-0.17934808
-0.066975296
-0.019929813
-0.17742878
-0.042953875
-0.17917791
-0.04324178
-0.12831447
-0.21359898
-0.04482373
-0.04232835
-0.083071016
-0.060807273
-0.16111624
-0.15076026
-0.00808541
-0.10338874
0.08890644
-0.04711578
0.046724968
-0.12485953
-0.102159835
-0.08818814
-0.081817016
-0.0932347
0.029145444
-0.1605497
-0.3038221
-0.2803969
-0.04873054
-0.34538886
-0.25381327
-0.30183175
-0.06605782
-0.013681217
-0.064272925
0.010257961
-0.068217635
-0.38552743
0.054353174
-0.019089175
0.07091452
-0.018965203
-0.16309138
-0.34870768
-0.27166662
0.10374395
-0.11262228
-0.15420006
-0.080219366
-0.10616146
0.03922802
-0.050283045
-0.092983216
-0.10129828
0.0030925486
-0.103744596
-0.033009
-0.009631571
0.005067771
-0.23531753
0.00621785
-0.043580953
0.05354795
-0.16746563
-0.29587087
-0.0077783614
-0.26495227
-0.06408733
-0.14458263
-0.07268425
0.0186124
-0.044650152
-0.1888306
-0.16944593
-0.19102912
0.11396234
0.041910116
-0.32629007
-0.09665718
-0.28675807
-0.100001
-0.27534983
-0.055004053
-0.033808004
-0.36107442
-0.12424127
0.042795658
-0.15334928
-0.03299955
-0.041780476
-0.067675084
0.07511561
-0.11017739
-0.36097705
-0.16114514
-0.0437603
-0.087218985
-0.05357793
-0.5745185
-0.34199622
0.033372387
-0.13503544
-0.2114413
-0.07639038
0.09659714
0.05497634
-0.26175553
-0.17038134
-0.3779175
-0.3041557
-0.37138003
0.0361426
-0.18082914
-0.0359123
-0.15192527
-0.019108161
-0.24256171
-0.241219
-0.2726609
0.11572016
-0.3111323
0.10735746
0.0012712877
-0.2404476
0.023695288
-0.21422869
0.10269246
0.10166405
-0.14836672
0.009955909
-0.02919012
-0.089508586
0.015669426
-0.122792654
-0.23392102
0.07162703
-0.026690276
-0.06675184
-0.17599148
0.032068226
-0.040806178
-0.03687346
0.044632483
-0.044597212
-0.13189892
-0.073066115
-0.11345222
-0.10099108
-0.10378726
-0.2859248
0.18069613
-0.024492938
-0.022377582
-0.05701876
-0.16733597
0.03445706
0.08635596
-0.11605121
-0.106686585
-0.08058749
-0.011520631
0.0041510486
-0.15297231
0.06610799
-0.10360279
0.107477516
-0.020132612
0.08597494
-0.006573083
-0.09073524
-0.397608
-0.11640912
-0.114210784
-0.23264031
-0.12612134
-0.12918662
0.10642791
-0.0020831309
-0.040473938
0.05589017
0.2083202
0.087683335
-0.05513951
0.16574818
-0.019810006
0.06666357
-0.16047531
-0.1029176
-0.30003262
-0.18603484
-0.47079203
0.012153193
-0.1446096
-0.12715158
0.0069834827
-0.2543142
-0.017900633
0.10721608
0.05419368
0.041152876
0.06987786
-0.15436368
-0.06667258
-0.048767842
-0.12111707
-0.245845
-0.059967626
-0.15178354
0.03424986
-0.11815657
-0.1674204
-0.0027841453
-0.007314879
-0.14343137
-0.23891732
0.09954374
-0.05558269
0.2087908
-0.26242638
-0.0107072545
-0.14058869
0.0032785656
-0.05010519
-0.048208565
-0.103737324
-0.021230225
-0.32273164
0.035922468
-0.01586853
-0.028099058
-0.15345259
-0.33809716
0.002836024
0.013345008
-0.2378584
0.05392281
-0.10990064
0.09999677
-0.06727652
-0.23108634
0.038873367
0.01590128
-0.19247346
0.0034008524
-0.120939694
-0.16676664
0.07134853
0.023968432
0.00010085104
-0.46896666
0.032768074
-0.11907451
0.1326711
-0.3221248
-0.017707597
0.026719619
-0.00044598934
-0.00039650683
-0.18227404
-0.13412055
-0.24783501
-0.13164471
-0.2962964
0.11934347
-0.009781347
-0.02632723
-0.031168263
-0.03890158
0.07161747
-0.13003716
-0.03472995
-0.113049775
0.014346218
0.053732745
-0.3811956
-0.1276798
-0.13071722
-0.27528057
0.04985233
-0.1674895
-0.1403284
-0.046819687
0.08962305
-0.009722925
-0.12993303
-0.3774323
-0.0729078
0.00674379
-0.18393068
0.037806258
-0.01750262
-0.10571416
-0.17425671
-0.02515376
-0.063816264
-0.2885879
-0.3021625
-0.034093883
-0.1174996
-0.06995171
-0.029110556
-0.20613778
-0.07751273
-0.09702533
-0.00073550193
-0.09226424
-0.021964103
0.12474259
-0.31613925
0.010475219
-0.024234004
0.014865241
-0.18646196
0.107392736
-0.17646275
-0.15736435
-0.036599565
-0.096438125
0.18220006
0.031223597
-0.047641687
0.099340476
-0.09052217
-0.05829982
-0.18809807
-0.22599514
-0.0753843
-0.032215666
-0.021982947
-0.04408798
-0.13377073
0.039044406
-0.12274372
-0.2772008
-0.13423358
-0.03867949
0.06648015
-0.32946086
0.04172331
-0.09308873
-0.27275878
0.0473357
-0.15636285
-0.3000006
-0.06403677
0.19486168
0.20696197
0.026753822
-0.02454146
0.009107917
-0.12089265
-0.4667394
0.048810907
0.012461412
0.09486209
0.1629265
-0.2517992
0.008369475
-0.30520928
-0.0070663895
0.034201935
-0.097137384
0.016123833
-0.08036937
-0.30720472
-0.028636338
0.0062405737
-0.10149941
-0.048508726
-0.1627769
-0.07424278
-0.1224887
-0.017763242
0.15666796
-0.070920214
-0.025610743
-0.15259078
-0.014917595
0.044299338
-0.19221722
-0.07373113
-0.11381976
0.0036363665
-0.04049126
-0.043140262
-0.052386183
0.009709526
0.11386323
0.059073538
0.0019204392
-0.035997048
-0.054720156
-0.086038485
-0.009176449
-0.25555468
-0.037886612
-0.13565953
-0.36281842
-0.25078878
-0.12921233
-0.073887885
0.104147084
-0.09225481
-0.066642106
-0.113152824
-0.25842094
-0.058127686
-0.06804885
0.008906216
-0.041869592
-0.22712797
-0.013419897
-0.12765618
-0.16007759
-0.19373032
-0.12638776
-0.28214905
0.018682078
-0.35011572
-0.28783095
-0.021275107
-0.10484235
0.1679687
-0.008628527
-0.05584207
0.040314402
-0.16611838
-0.046021324
-0.19355233
-0.25351053
-0.0215838
-0.016727522
-0.09716493
0.06145569
-0.111643374
-0.055428725
0.013252658
0.037096873
-0.040196147
-0.29778787
-0.063262664
0.08980509
-0.13398948
0.17985871
-0.19197145
-0.0012118204
-0.0902548
-0.052905217
-0.12785536
-0.028127547
-0.10753224
-0.34800717
-0.3573764
-0.028049357
-0.21826348
-0.22415897
-0.22126138
-0.04722707
-0.018738762
0.011840018
0.056468222
-0.29185635
-0.030164711
-0.31434375
-0.109842956
-0.27711564
-0.17557772
-0.25135255
-0.32526585
0.020868514
-0.10081735
-0.022818085
-0.12955993
-0.13212502
-0.07288147
-0.051117238
0.08986758
-0.0230484
-0.12733199
0.018278586
-0.006972475
-0.06874164
-0.2015073
0.025556294
-0.31039694
0.029922567
-0.27520037
0.000121747245
-0.057531
-0.29514208
0.07310074
-0.14282565
0.05878319
-0.32498017
0.127812
0.019247334
-0.030854871
-0.17365766
-0.118604995
-0.22344749
0.10119702
0.048104335
-0.26373097
0.008427567
0.045977753
-0.2237554
-0.2770196
0.018127965
-0.39390138
-0.5727946
-0.13512732
-0.16755262
0.08204367
-0.17923936
-0.020555204
-0.088408545
-0.36736122
-0.31477147
-0.103164814
-0.42537856
0.008107194
-0.09447678
-0.41651475
-0.22278625
-0.045740705
-0.32179254
-0.38629234
-0.31867358
-0.022737069
-0.05953352
-0.063022435
-0.10666922
-0.17162693
-0.029214438
-0.038740505
-0.035617024
-0.37624028
0.007029809
-0.05063775
-0.050446495
-0.007900442
-0.15937206
-0.3313547
-0.29392523
-0.4423892
0.028972154
0.13401343
-0.11756953
-0.13297996
-0.25068077
-0.2573646
-0.07296204
-0.30617785
-0.17427176
-0.12008757
-0.12772068
-0.16736817
-0.08360703
-0.013148498
0.06865286
0.068796605
-0.41367188
0.037796333
-0.35472822
-0.3686238
-0.020057729
-0.16699432
0.04522313
0.029336581
-0.38488337
0.06831825
-0.026214665
-0.09203872
0.08230245
-0.16662616
-0.08531176
-0.10917979
-0.23596376
-0.20424564
-0.1316493
-0.038615964
-0.16238168
-0.27578703
-0.22393924
0.032810327
-0.21373206
0.003510784
-0.083336614
-0.251381
-0.11488136
-0.13651115
-0.08853627
-0.10054368
-0.08333744
-0.050873183
0.09280079
0.034023464
-0.041950084
-0.1353945
-0.29706115
0.03742017
-0.28662625
-0.07133628
-0.013023877
-0.0975646
0.04601639
-0.095466524
-0.18167517
-0.11196765
-0.010007816
0.03261871
-0.066000916
-0.39239556
-0.11115341
-0.28513905
-0.10432067
-0.039269138
-0.05719326
-0.11941012
-0.060590863
-0.09281284
-0.005736146
-0.23073901
0.0016100607
0.015101813
0.049923968
-0.06995025
0.083061114
0.016081626
0.013393703
-0.20603777
-0.14149852
-0.009366818
-0.0695837
-0.021329349
-0.018545981
0.05634446
-0.0766495
-0.093829304
-0.3373694
0.002052694
-0.10119162
-0.23195568
-0.09000544
-0.10036466
-0.11324761
0.0839018
0.01656546
-0.010298976
-0.24740115
0.06105792
-0.013602161
-0.2983821
0.015336562
-0.24241576
-0.022904834
-0.009981194
-0.09919338
0.066278875
-0.04961246
-0.09828675
-0.22033939
-0.048967388
-0.28861198
-0.0058243843
0.054694038
-0.0038022257
-0.037207093
0.030804059
0.06899502
-0.33670974
-0.035059087
-0.0802843
-0.055729225
-0.22012478
-0.22150172
-0.34543258
0.004641932
-0.032839216
-0.29709765
-0.34369397
-0.37113705
-0.25038627
0.12115859
-0.3000614
-0.28452086
-0.35575578
0.08654239
-0.05617723
-0.016030574
-0.32232058
-0.24478343
-0.11429547
-0.12739319
-0.06719473
-0.05590212
-0.049653508
-0.024196237
-0.33724293
0.06261348
-0.1198975
0.06584281
0.020118477
-0.008388501
-0.038797785
-0.1277261
-0.1924905
-0.2746619
-0.33168995
-0.09127281
-0.14420365
0.0033314503
0.049959514
-0.30540776
-0.37881437
-0.16859175
-0.24849385
-0.041991636
-0.22964445
-0.18294136
-0.059616625
-0.007646746
-0.023095788
0.018986039
-0.085560106
-0.19363607
0.0466654
-0.11333651
-0.070576265
-0.0030501867
-0.21643654
0.041897222
-0.10318895
-0.118603
-0.1571132
-0.3439901
-0.15950046
-0.034164026
-0.3095882
0.033706985
0.053621326
-0.17739195
-0.030807657
-0.17758031
-0.14774829
-0.015241383
-0.1481262
-0.26817837
0.058651447
-0.092480406
-0.0920858
-0.02867548
0.035463355
-0.056105338
-0.07049806
-0.1582352
-0.08672511
-0.026468674
-0.3184325
-0.20954707
-0.09394124
-0.23648469
-0.01104036
-0.072028585
-0.12608548
-0.01597063
-0.6625626
-0.12892984
-0.025350451
-0.15321831
0.06859585
-0.17821118
-0.17297186
-0.12595199
-0.1281576
-0.22837415
-0.22280948
-0.19215266
-0.012076904
-0.022295719
0.029543081
-0.13362533
-0.023907699
-0.38416955
-0.14251898
0.027035065
-0.41307238
0.18057486
-0.12696151
-0.1956226
-0.057452142
-0.0035425157
-0.31915346
0.16376863
0.01257062
-0.04733925
0.033709195
-0.27553877
0.0050090044
0.1044794
-0.10635011
0.0522034
-0.018869834
0.015325465
-0.095005155
0.06398971
-0.15476583
-0.302696
-0.028857825
-0.021987436
-0.20007291
-0.033557624
-0.20020075
-0.10741011
-0.12759696
-0.14395683
-0.030735366
-0.05925493
-0.17505115
-0.30586946
-0.35299018
0.06719542
-0.053308576
-0.25706697
-0.22170842
-0.1659521
-0.022262195
-0.24922217
-0.03648703
0.04217497
-0.07737216
-0.10312866
-0.25749263
0.1172476
0.09503004
-0.13514178
-0.016385194
-0.08599883
0.0733784
0.13916467
-0.061298184
0.02479962
-0.18538612
-0.15554106
-0.28814167
-0.1194587
-0.33205032
-0.16071601
-0.31524697
0.16921663
-0.22364484
0.0503491
-0.16373967
0.0028259507
-0.30410746
-0.030321034
0.039347276
-0.39553687
-0.25668308
0.16148344
-0.32981318
-0.08249823
-0.01716287
0.076973096
-0.094179995
-0.2364391
-0.04121453
-0.07071371
-0.038152725
0.08784247
-0.107220836
-0.06638717
-0.24840629
-0.046604544
-0.032316666
-0.059065152
-0.104902536
-0.07931312
0.08559912
-0.24255079
-0.015258059
-0.24424197
-0.08111733
-0.23178253
-0.08358421
0.019824484
-0.25640017
0.13550137
0.020612376
-0.014508423
-0.030390304
-0.040337145
0.06492491
-0.2566214
-0.340582
-0.065447204
-0.17555533
-0.006956302
-0.1430973
-0.054123543
-0.18473452
-0.15213154
-0.10378878
-0.25560513
-0.10332435
-0.09138375
0.063473836
-0.038175948
-0.2943509
-0.103202656
-0.0500969
-0.04935806
-0.012456229
0.015208596
-0.031035263
-0.20778967
-0.017511815
-0.27432403
0.08593421
-0.30305362
-0.07597308
-0.07324652
-0.23762015
-0.012053252
0.08006086
-0.081620805
-0.024309108
-0.2771157
0.03777351
0.117649645
-0.12021972
-0.16716838
0.014093831
-0.0884588
-0.064660504
-0.14868447
0.057953224
0.041433483
0.036555603
-0.23433982
0.0048335665
-0.0700704
0.013497921
0.11347237
-0.32262883
-0.0044789524
0.029304745
-0.014575931
-0.010144354
0.038190335
-0.024574531
-0.32059333
0.01842166
0.14336607
0.0857749
-0.10856312
-0.30011448
-0.26463595
0.13923052
-0.06007753
-0.08064909
0.029549997
0.096437246
-0.32939568
-0.03961961
-0.05670867
0.09626858
-0.056281738
-0.03545374
-0.21566659
-0.19828515
-0.14450465
-0.09481453
0.04542366
-0.016902238
0.10651458
-0.18427211
-0.10397709
-0.14585386
-0.31699902
-0.06990679
-0.2271507
-0.069490306
-0.3016451
-0.11050182
0.07105677
-0.2526883
0.07130723
0.096580744
0.021661883
-0.46410516
-0.123876296
-0.28357333
-0.40756583
-0.11262265
-0.3527361
-0.3465511
0.011055208
-0.009812538
-0.026460163
-0.14314069
-0.093259856
0.05166536
-0.12962353
-0.29744568
-0.109175935
-0.1603307
-0.04485241
-0.0023260503
0.07769055
-0.0695009
-0.056336425
-0.19098262
-0.17905352
0.051567536
-0.030574663
-0.12916237
-0.17308232
-0.27924347
-0.03753328
-0.11817767
0.08852776
-0.014434836
-0.1965529
-0.32661715
-0.26127052
-0.002097622
-0.121670365
0.0076949364
-0.07681222
-0.024068285
-0.018370656
-0.21575652
-0.041394826
0.07098402
-0.026108142
-0.25249094
-0.19450898
-0.27721193
0.062248576
-0.105297185
0.08836264
-0.28517914
-0.22756095
-0.06381164
0.06988681
-0.20790459
-0.0055171293
-0.035288084
0.22405426
-0.090152204
-0.15277341
-0.055509757
-0.07308176
-0.23097782
-0.26411745
0.059568286
-0.19036014
-0.07398163
0.105641775
-0.13439907
-0.02839118
-0.020573104
-0.110643245
-0.072780654
-0.02662936
0.083247304
0.11713795
-0.054231048
-0.22529212
-0.04822478
-0.11772835
-0.12162923
-0.023744334
-0.14595895
-0.069706365
0.01192974
-0.17464022
-0.032895125
-0.24077646
-0.1845552
-0.07287125
0.14342767
-0.13755275
-0.0025221757
-0.14512376
0.14765733
-0.111018196
-0.15802874
-0.052377872
-0.25533676
-0.12358341
-0.20773612
-0.4620406
-0.17549583
-0.07291291
-0.04569664
-0.090863645
-0.04017733
-0.27192536
-0.14046997
-0.041125637
-0.30443045
-0.31976676
-0.14496358
-0.012954801
0.013740556
-0.053643763
0.005499398
-0.39451718
-0.21874449
-0.2743481
-0.19953078
-0.050970722
-0.012904209
-0.10104218
-0.070217766
-0.15146314
-0.429283
-0.20674846
-0.18366905
-0.1407041
-0.056884497
0.020742768
-0.06637938
0.02564492
-0.06625557
0.04942789
0.0975367
-0.248065
0.0022694918
0.025884764
-0.19896644
-0.09476764
0.1347862
-0.24035136
-0.15425807
0.083005205
-0.04322052
-0.008968754
-0.0079038385
0.09906243
0.07399135
-0.011115894
-0.37312973
0.01716979
-0.13022417
-0.10521278
0.039900087
-0.23829511
0.0062758424
-0.28760692
0.00033045362
-0.0045768707
-0.030487923
0.03686355
-0.22858566
0.02857222
-0.0018929603
0.06400159
-0.045011383
-0.22558117
0.029863907
-0.36268514
-0.018671313
-0.21852411
-0.04878762
-0.07103677
-0.31577337
-0.3227282
-0.18603362
0.16247933
-0.047546875
0.08904654
-0.04011807
-0.042648386
-0.025909772
-0.021502772
-0.036306422
-0.031849656
-0.3136455
-0.013650697
0.15323918
-0.34739003
-0.11586749
-0.22097543
-0.08809065
-0.1327335
-0.018720647
-0.15350874
0.024645107
-0.24910723
-0.094198145
-0.15525617
-0.19745031
0.04856544
0.007879862
-0.06795217
-0.3056725
-0.044461288
-0.26795426
-0.2128351
0.02430707
-0.1475517
0.028763063
-0.032108262
-0.33557624
0.02284505
-0.19082685
0.02036053
-0.059367664
-0.3464451
-0.44202143
-0.080473416
-0.032541614
-0.08403781
-0.07632019
-0.029804584
-0.33709425
-0.0057493798
-0.002011091
-0.09223171
0.06997681
-0.036563337
0.024643287
0.034830216
0.05156304
-0.119269386
-0.0010931666
-0.07624289
-0.11512896
-0.004615832
0.10691375
-0.048777524
-1.7628377e-05
-0.12190486
-0.016094582
0.005284868
-0.09737357
-0.30983284
-0.01605399
0.12154677
-0.028039219
-0.2802327
-0.0120242685
-0.06382741
-0.0989082
0.012304839
-0.107417114
0.09959207
-0.18476586
-0.20082003
-0.20676823
0.017453661
-0.0011057331
-0.13599786
-0.01745382
0.047197178
-0.11755784
-0.08828705
-0.077414386
0.0076940944
-0.16645609
-0.0057608057
-0.10831809
-0.28432482
-0.32366613
0.029898409
0.036241356
-0.106076874
-0.026093695
-0.10860655
-0.18012789
-0.08410246
-0.0032147646
-0.1662072
0.10861385
0.04408751
-0.3641163
-0.3154892
-0.050521858
-0.06707796
-0.056213867
-0.19000334
-0.10452136
-0.1435975
-0.08380026
-0.37906182
-0.24455523
-0.16160223
-0.00985815
0.013297028
-0.27176085
0.110695116
0.13669835
0.12740704
-0.11097839
-0.178457
-0.088384196
-0.1023297
-0.036443915
-0.06229543
-0.061454482
-0.28946313
0.0033660128
-0.043532122
0.090633586
-0.1444196
0.0025745637
-0.024645986
-0.09546916
-0.015464539
-0.57346874
-0.021297757
-0.022007624
-0.078656726
-0.15647028
-0.09021903
-0.068422005
-0.15574591
-0.12137035
-0.17161427
-0.10780805
0.014823237
-0.402042
0.10541282
-0.176303
-0.14383805
-0.03664292
-0.19018489
-0.09212655
-0.31889707
-0.11532206
-0.060774665
-0.19865586
-0.054193564
-0.109607466
-0.036622874
-0.22272699
0.03791631
-0.32872263
-0.0028901703
-0.4029239
-0.004479013
-0.17661867
0.03246218
-0.0282249
-0.053556938
-0.26474547
0.059882905
-0.08855314
0.02649741
-0.18200558
-0.07681396
0.02894321
-0.010577222
-0.23473328
-0.19019872
-0.2654083
-0.0073652477
-0.0179011
-0.21866414
0.0038090849
-0.049726598
-0.0528655
-0.270874
-0.12954146
-0.15515284
0.04887194
-0.17071491
-0.07229753
0.12920083
-0.025724573
-0.15297921
0.058811337
0.0713041
-0.063708484
-0.033340413
-0.057260893
-0.15834385
-0.07675049
-0.15676266
-0.11424489
-0.16023691
0.23783253
-0.01297754
-0.19700767
-0.2560271
-0.048735537
-0.0020517223
0.013960387
-0.3156219
-0.023132322
-0.22566535
-0.08422963
-0.26637366
-0.0865449
-0.41014484
0.036285374
-0.07916107
-0.22365299
0.007165499
0.009516461
0.025790539
0.24594328
0.084247746
-0.22591333
0.051506553
-0.01894984
-0.23244312
-0.06096436
-0.36221159
0.06071389
-0.052726872
-0.31703463
-0.008739348
-0.09241622
0.14086236
-0.2395477
-0.3431041
-0.1383674
-0.3565417
-0.27808577
-0.054120105
-0.11126804
0.016089741
-0.15839283
0.016115602
-0.2013515
-0.42584094
0.10213003
-0.089450516
-0.089646615
0.006274957
-0.2890186
-0.35231423
-0.1802327
-0.38376057
-0.08007625
-0.08369109
-0.17811178
-0.31047982
-0.34396085
-0.06220232
-0.091491036
-0.21735115
-0.08445791
-0.01732237
0.135541
-0.03536993
-0.08940288
-0.14518556
-0.12520799
-0.02253594
-0.05087664
0.07274971
-0.25687847
-0.0043000304
-0.002843572
-0.10607849
-0.16982006
-0.04305637
-0.1912564
-0.08425562
-0.022431048
-0.09219647
0.14022751
-0.12627175
-0.46404254
0.0077160085
-0.09392142
-0.022043362
-0.20362896
-0.14922312
-0.07089173
-0.10719082
0.046227504
-0.063214116
-0.09803246
-0.016980868
0.11163765
-0.033955216
-0.043917198
-0.15276577
0.0105394535
-0.24710554
-0.1712968
0.023920288
0.0730048
-0.030064916
-0.0020575433
0.07287788
-0.3757871
-0.28757995
-0.026549397
0.117782734
-0.05516614
-0.2108603
-0.023180477
-0.007867833
0.085765444
-0.0745127
-0.12930666
-0.100740544
-0.05269509
-0.23143138
0.0322659
-0.06716852
-0.15382294
-0.33372116
-0.0048090834
-0.03131992
-0.13764414
-0.115224265
-0.02845203
-0.2633347
-0.00840997
0.14195356
0.039376233
-0.074663706
-0.2379877
-0.28804392
-0.2489489
0.028838571
-0.03650087
0.09846396
-0.19192125
0.0561108
-0.055373147
-0.061533637
-0.27959362
0.015003784
-0.17862241
-0.11461234
-0.04567374
-0.17038237
0.032841578
-0.18394564
0.0073103914
0.015105743
-0.2668895
-0.011420792
-0.01068229
-0.03947172
-0.11719866
0.08289447
0.07307301
-0.05421113
-0.11542489
-0.040517084
-0.18612735
-0.15000921
-0.33632815
-0.0005980297
0.016982721
0.09577234
0.09851025
0.014466454
-0.07250092
-0.20208909
-0.2368961
-0.005264181
-0.18425907
-0.10051769
-0.22239682
-0.056282856
-0.30155438
-0.29355547
-0.10193325
0.06289841
0.084248714
-0.24464247
-0.12738988
-0.07866359
-0.1362013
0.08157508
0.06252058
-0.11516057
-0.08377516
-0.007683903
-0.1125082
-0.11049767
0.0343276
0.0034036739
-0.09694936
-0.013100028
-0.01697018
-0.30076727
-0.036838256
-0.3075468
-0.031171411
-0.043670792
-0.08546648
-0.07614415
-0.029916812
-0.086129926
-0.07389633
-0.008700966
-0.023218984
-0.2005909
-0.11943352
-0.1261381
-0.031722557
-0.2214602
0.0026514048
-0.060194112
-0.11995568
-0.014400197
-0.36938936
-0.017184708
0.078221664
-0.008115839
-0.121524915
-0.093026236
-0.055011664
-0.032931056
-0.10164782
-0.09974642
-0.10317569
0.01262475
-0.08360861
0.013285971
0.17834054
-0.20449662
0.07941659
-0.10745634
-0.09207388
-0.089017645
-0.18799633
-0.103917845
0.11546883
-0.06302649
0.013485964
0.02321951
-0.02272286
-0.20969616
-0.008086893
-0.12457729
-0.16535226
-0.020820921
-0.06242159
-0.0443706
0.03900374
-0.12828477
-0.053931847
-0.27876243
0.038348682
0.006377965
-0.5031125
0.008963494
-0.103182666
-0.28735262
-0.31707835
-0.03396915
0.014144539
-0.23540513
-0.10184716
-0.023007689
0.11134887
-0.08759722
0.06337819
0.06360336
0.114315584
-0.37494564
-0.30884087
0.11680836
-0.07908707
-0.2802791
0.07697357
-0.0605539
-0.24628711
0.125898
-0.0019427558
-0.10453958
-0.1928687
-0.079077624
-0.25107804
-0.5578044
0.006959267
-0.017655402
-0.07964987
-0.11298703
-0.22104757
-0.1169689
-0.3098439
-0.019777335
0.11098641
-0.26845932
0.056973603
-0.038338147
-0.11500022
-0.035304897
-0.21879543
-0.23090331
-0.04613341
-0.08208093
-0.16126409
-0.11366033
0.008325466
-0.2385619
0.13531935
-0.006149493
-0.34130242
-0.32591036
-0.042719625
0.058793474
0.11005025
-0.43865472
-0.0015034275
-0.007132492
-0.03669126
-0.13557331
-0.04007325
-0.25861165
-0.12417517
-0.049208295
-0.007676178
0.01475092
-0.4286948
0.04617785
-0.026325582
-0.3274807
0.07798435
-0.24925967
-0.15358987
0.029232452
-0.014990049
-0.15081108
-0.010941382
-0.23635311
-0.15453582
0.09009818
0.09179471
-0.13696964
-0.11889888
-0.027002618
0.013493225
-0.2949883
0.006167065
-0.15074494
-0.0981349
0.06843231
-0.465238
-0.35194483
0.07201603
-0.049822874
-0.011841339
-0.15463656
-0.19673797
0.025466254
-0.012258108
-0.22287002
-0.013173459
-0.37907922
-0.09589693
-0.022510342
0.044343904
-0.14389151
0.030088067
0.006178495
-0.25010106
-0.102834016
-0.01476871
-0.0018697986
-0.033838756
0.0010705477
-0.046345577
-0.051429335
-0.01679173
-0.086921565
-0.16654845
0.2206064
-0.38251346
-0.12680583
-0.21245535
-0.22116625
0.07946713
-0.30268556
-0.21045622
-0.3047262
-0.011077499
-0.265757
-0.072499804
-0.18382151
-0.16968828
-0.1754953
-0.12304766
-0.01013098
-0.12788902
-0.04351242
0.06215728
-0.088071115
0.009959848
-0.013927705
-0.23732533
0.0740479
-0.023598226
-0.039155602
0.09388662
-0.3695234
0.072308466
-0.03220054
-0.063341014
-0.05076203
-0.17397362
-0.40025514
-0.021196535
0.03124976
-0.047396656
0.12041022
-0.01114193
0.12645653
-0.05804445
-0.035098474
-0.11831086
-0.08138103
-0.17812647
-0.11725271
-0.03129054
-0.25087813
-0.0344377
-0.04350231
0.060101017
-0.008208913
-0.0740688
-0.12928922
0.012385846
-0.25808054
0.00403627
-0.031072285
0.050397273
-0.25411108
-0.26064336
-0.06363362
-0.031359453
0.07644652
-0.12661749
0.07738603
-0.038306534
-0.17486651
0.0044302074
-0.06457005
-0.13990438
0.038397036
0.0076940847
0.05199486
-0.05166359
-0.042158403
-0.019244602
-0.37089437
-0.014842059
-0.12863654
-0.02922499
-0.16223909
-0.21391408
0.03416697
0.11881863
-0.07088709
0.0043941997
-0.042547997
0.10124788
-0.021896066
0.013153234
-0.039009947
-0.201606
-0.22380537
-0.41816556
-0.27689907
0.10983552
0.08151327
-0.055792473
-0.042826507
0.12605199
-0.08945031
-0.124985814
-0.28952143
0.11511472
-0.095190346
-0.10172694
-0.12912916
-0.09970779
0.0879994
-0.12621252
-0.01772992
-0.33364066
-0.21655945
-0.17900652
0.124804765
-0.09974759
-0.127618
0.0076291687
-0.16296177
-0.033615913
-0.2074819
-0.033039797
-0.33807263
-0.09885777
-0.020442093
0.07984295
-0.04557722
-0.095433526
-0.105065234
-0.15670793
-0.084508106
-0.026145488
-0.07915065
-0.08262821
-0.033330727
-0.15420449
-0.14452763
-0.017301386
-0.02287125
0.029439
-0.082280256
-0.13288675
-0.09261234
-0.001599281
-0.0031705496
-0.31945255
-0.055221617
0.12613285
-0.35251322
-0.06056399
-0.383309
-0.016234092
-0.29923353
-0.012815353
-0.093931764
0.19599396
-0.06735585
-0.13006164
-0.14592402
-0.10492187
-0.14903443
-0.018205544
-0.10227271
0.09215856
0.030863589
-0.03467092
0.057969496
-0.18516736
-0.07998074
-0.16558139
0.23239844
-0.090947896
-0.3744897
-0.057577908
0.011314262
0.017146097
-0.13307106
-0.05455114
-0.05732407
-0.10943639
-0.32424927
-0.17646296
0.03928218
-0.17236485
0.05915808
0.18078761
-0.135561
-0.13042845
-0.064284615
0.10071983
-0.07957359
-0.05988902
0.07681612
-0.26965818
-0.1842317
-0.04173252
-0.04551079
-0.05420493
-0.26308694
-0.018509507
0.004428004
-0.005352967
0.08687308
-0.11717901
-0.02808678
-0.34285372
-0.17681217
-0.23007913
-0.048651963
-0.028957296
-0.06915965
-0.07707359
-0.108892635
-0.082473055
-0.24736643
-0.20224209
0.08037617
-0.17623784
-0.048560984
0.17639242
-0.09232735
-0.496752
-0.14103761
-0.21657695
-0.014999684
-0.018084954
-0.021521728
-0.14508177
-0.2912373
-0.117876284
-0.27933526
-0.24718584
0.038023546
0.051801402
-0.15070397
-0.017391121
0.09882766
-0.080795914
-0.1799414
-0.0125726005
-0.18788117
0.067963615
-0.024476944
0.07797511
-0.04211559
0.039399922
0.13367721
0.162093
0.018128617
-0.08871923
-0.07814082
0.12925863
-0.03222889
-0.012266445
0.10281655
-0.017510042
-0.027036946
-0.15290056
-0.23048526
-0.19926997
-0.08908379
-0.14026226
-0.064909704
0.043164432
-0.22117382
-0.10372604
-0.22790612
0.03202398
-0.22164418
-0.4116823
-0.004599156
-0.03591512
0.007412477
-0.14852995
-0.008043814
0.035303477
-0.06654141
0.086867526
-0.0030556938
-0.39828575
0.052843463
0.0415031
-0.027095051
-0.28275707
-0.002386889
-0.0722346
-0.26150635
-0.34842142
-0.10864203
-0.018917257
-0.031805936
5.8986567e-05
-0.15440476
-0.37944335
0.038710974
-0.17670368
-0.28915408
0.025173998
-0.03275175
-0.042135432
-0.089891195
-0.4798815
-0.13111454
-0.30119228
-0.056306973
-0.022044599
-0.26322758
0.01840189
-0.031454027
0.11873344
0.02344966
-0.1105585
-0.32568413
0.052988544
-0.1845569
0.027930986
0.19388296
-0.06584168
0.00084564125
-0.0034194705
-0.0456768
-0.3401006
-0.1671074
-0.059988156
-0.24054654
-0.315497
0.004981427
0.019891633
0.022148432
-0.0036705267
-0.053596158
-0.08227115
0.050939266
-0.33216032
-0.24571873
-0.017298093
-0.24890609
-0.07699938
0.014037817
