0
0.48039746
-0.5254279
-0.4292324
-0.20617339
-0.12792137
-0.09545465
-0.35307497
-0.076556936
-0.045678146
-0.03762387
-0.013819877
-0.18479092
-0.120089814
0.044021584
0.04217335
-0.31303546
0.016828382
0.3491857
-0.39040652
-0.030145511
0.32875705
0.11610397
0.039126247
0.1314608
0.04771268
-0.12442966
-0.005438724
-0.14207068
0.07274595
0.13007958
0.46434778
0.12834832
0.5763711
-0.078423776
-0.56918883
0.02530759
-0.17933819
-0.20698655
0.0074221287
0.029714044
0.01703496
-0.2148737
-0.062453225
-0.30969173
0.123213395
0.21786687
-0.20166945
0.25497323
0.301875
-0.28988102
-0.07239666
0.15268695
-0.4399188
-0.022324087
-0.0076027773
-0.5089205
0.033590566
-0.118732326
-0.17943981
-0.33979338
0.35739383
-0.014793553
0.50845635
-0.37187052
-0.13999139
0.51370287
0.33065224
0.15320908
-0.14935459
-0.33216125
-0.18578984
-0.08608114
-0.10653539
0.07911322
0.036891382
-0.6277267
0.55910736
-0.024018647
0.023203086
-0.20523463
0.0759181
-0.625964
0.23465069
0.3810965
-0.23154023
0.3047928
-0.5413964
0.5712991
0.20918685
-0.16413729
0.64586425
-0.45188606
-0.3411336
0.60841316
0.38017353
0.572826
0.20539124
-0.17270245
-0.31185216
0.49205583
-0.3971754
-0.4137799
-0.017086193
-0.08704281
-0.2782942
0.45275053
-0.31065544
-0.27137884
0.20719393
0.5086742
-0.058927976
-0.18086348
-0.35592532
-0.22521967
-0.05856661
-0.16316782
-0.7310493
0.22246756
-0.56805706
0.59888726
0.17044747
-0.2258448
0.0630331
0.30586025
-0.24419732
0.28364855
-0.6876311
0.106368266
-0.088212736
0.15107231
0.027864888
-0.7174352
-0.23183867
0.8883095
0.19233763
0.025449945
-0.121918514
0.008296452
-0.2207511
0.28212237
0.27195296
0.060107876
-0.25352672
-0.040777605
-0.13716012
-0.22253595
0.7181628
0.15623528
-0.3129765
-0.028015403
0.13242537
0.033915658
0.026644608
0.061694026
0.46834624
0.010596799
-0.07235664
0.014578311
-0.051807616
0.15422171
-0.053220678
0.35792923
-0.20505996
-0.38238683
0.11981984
0.25409612
-0.44787374
-0.17363459
0.26648796
0.15635496
0.22574411
0.051953066
0.14426413
0.07639857
0.00026731522
0.06001029
-0.020087427
-0.21502766
0.005982041
-0.17269982
0.092415966
0.4107444
-0.17685767
-0.16509026
0.19120415
0.15455994
-0.38645086
0.21551126
-0.5858537
0.8650045
-0.41121325
-0.26191714
0.0759063
0.46988255
0.5794763
-0.58574796
0.7826428
0.5710397
0.3023135
0.521241
-0.41115886
-0.41944405
0.088716544
-0.24449778
-0.2841284
0.571537
0.08227582
-0.87328804
0.35065922
0.36112437
0.13836192
-0.516685
0.3345604
-0.32912806
0.4290542
-0.34898332
0.46059343
-0.5726058
0.22032623
0.20096524
0.21114735
0.7666492
0.5028267
-0.37565586
-0.46482182
0.06782347
0.51078963
0.56156826
-0.46156368
-0.1261726
0.30561706
-0.13863555
-0.36837763
-0.12567425
0.40152815
-0.40021294
-0.37091786
0.35832983
0.4713851
-0.22661006
-0.08540973
-0.59124017
0.42674103
-0.7328239
0.41443977
0.87026685
-0.021882534
-0.60949606
-0.9690841
-0.3566882
-0.26818147
0.7571646
0.43017465
0.30324733
0.1284643
0.42061317
0.24806854
-0.18677823
-0.070102
-0.246731
0.14798912
-0.031739198
0.28054196
0.15213652
0.5193763
0.31915608
0.25982785
0.072204225
-0.2108867
0.06700871
-0.07687643
-0.29271924
0.3866124
-0.1756901
-0.06480436
0.0012192575
0.21797559
-0.44431335
0.07269317
0.08982178
-0.19958754
-0.26997742
0.22459929
0.071879424
0.3380242
0.031070655
-0.5375927
0.52344966
0.0510667
-0.23990682
-0.10566219
-0.26441944
0.35969988
0.04656065
-0.06328225
-0.25167295
-0.2452255
-0.19139749
-0.18903118
-0.15501359
-0.21520212
-1.0109572
0.64755523
0.07541348
-0.27394018
0.32834765
-0.39750367
-0.2485319
0.38342083
0.1187107
0.4796436
0.5165838
0.35155696
0.30862072
-0.22511369
0.008345261
0.37959617
-0.25989747
-0.14114444
-0.43809503
-0.37585017
-0.36720076
0.18182923
-0.39739606
0.506733
0.17914493
0.1434739
0.13945636
0.18576138
0.010438312
0.5076764
-0.28756636
-0.62937266
0.32340762
0.28512233
-0.33054155
-0.32322043
-0.17253692
0.25089225
-0.41307047
-0.31499532
0.49179822
-0.2893645
0.22934301
0.4773792
-0.6217149
-0.40066242
0.17916672
0.46010932
-0.55746955
0.45175004
-0.17857781
-0.65329874
0.31330866
0.28427523
0.39076197
-0.5415824
-0.37267172
-0.38287136
0.18068606
-0.49180606
-0.34484032
0.18440187
0.585109
-0.29814485
0.41773885
-0.54503816
-0.09114668
-0.05049165
-0.0172948
-0.30496532
0.19010884
0.2269977
-0.40393707
0.45372897
0.021489516
-0.61505765
-0.22118197
-0.07882171
0.31222057
-0.3694406
-0.44732973
0.43354845
-0.3556915
0.11300265
0.2943892
-0.121509224
-0.40747038
0.61223406
-0.051970188
0.15234798
-0.15228607
0.019790616
0.05566145
-0.5832918
-0.6995938
-0.07341515
-0.15293136
0.23285134
0.2422327
0.02260532
0.13380097
-0.0050382544
-0.20442078
-0.08689983
-0.13383076
-0.35525513
-0.059760638
0.080352195
-0.27032027
0.0815369
0.016428337
0.12806097
0.060137816
-0.22646138
0.020074353
-0.5843527
-0.04196304
-0.40610152
-0.27344924
0.09178204
-0.41609314
0.0637668
-0.07716622
-0.37469584
-0.5019805
-0.54490393
-0.5530366
-0.047728848
0.18367283
0.028177373
0.28584194
0.65549934
0.30226249
-0.11978618
0.71510893
-0.0062829815
0.10619395
0.033045657
0.017563274
0.05255767
-0.28195366
-0.21083696
0.1700618
0.25503615
-0.081037045
-0.06707566
0.19228569
-0.03709571
-0.1455159
0.39952645
0.0074391454
0.15422755
-0.3444688
-0.32050323
-0.43242383
-0.23762432
-0.15177631
1.174959
0.5458265
0.5781333
0.69768894
0.3242443
0.50530773
0.2428764
-0.16567682
-0.33568752
0.34633777
-0.8871001
-0.49286628
0.034523062
-0.78766954
-0.17667578
-0.5346963
-0.32123128
-0.27820125
0.046860177
-0.19866137
-0.17591482
0.1150573
-0.042661935
0.16023944
0.080194674
-0.19248447
0.44567493
0.1919465
0.5345321
0.0118799
0.05322935
-0.30038458
-0.45226488
-0.4419609
0.19106166
-0.027814403
1.1419716
-0.42754278
0.38356906
0.731127
-0.09980219
-0.119403645
0.46957645
-0.84127444
0.5111148
0.41700444
-0.029035289
-0.25949842
-0.23107973
-0.22051983
-0.19652863
-0.9832344
-0.17138931
0.33307204
0.064689055
0.91152066
0.006826936
0.2236349
-0.03216114
0.29263392
-0.28337687
-0.36016905
0.35609302
0.25565737
-0.16034684
0.0072742403
-0.025601454
0.13027942
0.101599425
0.0688554
-0.026308907
0.014326821
0.20323543
0.68161106
0.0015413801
0.36448756
0.24004935
0.023910958
-0.04430571
0.21251087
0.03341726
-0.4411666
-0.036712475
0.22012763
-0.49168497
0.4335695
0.3791685
-0.15636514
0.2260912
-0.2994083
0.33420688
-0.051971182
-0.01177334
-0.0073801433
-0.25551376
0.5796937
0.008590739
0.025626276
-0.71796435
-0.1054539
-0.45053127
0.15564877
0.08237712
0.08130892
-0.11155087
-0.11315881
-0.10349416
-0.23042387
-0.30893576
-0.6039206
0.023048615
-0.038481522
-0.04721082
0.49460435
-0.13795584
-0.3431503
-0.325267
-0.16688138
0.110210225
0.06330608
-0.042639982
-0.07439431
0.018048568
-0.01760476
-0.28758687
0.024647102
0.050310075
-0.84638256
0.31099114
0.3199407
-1.0204921
0.776542
0.93968076
-1.2021439
0.07465625
-0.099686444
-0.71109587
0.04455815
-0.70945436
-0.018796343
0.015762031
0.70154583
-0.14459741
0.5544047
0.06482092
0.0770683
-0.06945766
-0.036295947
-0.15243948
-0.14121613
0.04859934
-0.07709635
-0.007720478
0.13986813
-0.027970394
0.100122504
0.046733808
-0.3750812
-0.023631452
0.030749038
-0.00975956
-0.014478917
-0.8953277
0.02796102
-1.0117768
-0.7093865
0.00033743642
-0.03279324
-0.05066115
-0.02473919
0.3647253
0.47542801
-1.2538903
0.008303996
0.0309991
-0.010071014
0.24076436
-0.01375543
-0.06402969
-0.764759
-0.096494354
-0.07845608
-0.09640518
0.15421236
0.14248471
0.26532316
0.045339264
-0.067104794
0.063841075
0.14763552
-0.07967292
-0.55571645
-0.0012975712
0.0868403
-0.30785292
-0.035373494
0.57974
-0.101198636
-0.15429156
-0.4671661
-0.07409027
0.30884358
-0.038285572
0.09460758
0.62770015
0.09333704
-0.15710376
0.031021342
0.11138075
-0.07576075
-0.013631761
0.11710455
-0.048479106
0.39273843
-0.17025524
0.20298705
-0.009693513
-0.011931904
-0.01879943
0.16431113
-0.2990925
-0.18192579
0.26595783
-0.40426683
0.21305324
0.44461986
-0.0029581697
-0.1450236
-0.22058189
-0.16593239
0.13428433
-0.050265446
-0.24105163
-0.049936466
0.45863372
-0.27262893
-0.24147585
-0.2611938
0.017345143
0.17428248
0.3219238
-0.19026095
0.11397584
0.20427196
-0.13184412
-0.18956035
-0.07610427
-0.32106793
0.2912446
0.79349923
0.08729717
0.2481291
-0.36262193
-0.12679529
0.35847175
0.3194899
-0.27791694
-0.046082143
0.10223966
0.026912156
0.40882936
0.084246255
-0.38604227
0.1408719
-0.06591964
-0.020602962
-0.03803622
0.64985067
-0.6982464
0.32161552
-0.09546776
-0.6212309
0.25377667
-0.16766275
-0.0074247317
0.24262539
-0.13662687
0.074655615
0.19363253
0.81447583
0.31887063
-0.09941752
-0.036562845
0.0008183238
0.11573198
0.12324155
-0.14153714
0.73644084
-0.5106546
0.26975602
0.2957752
0.424685
-0.07650815
0.4704174
-0.04978548
-0.14258939
-0.021612098
0.09469536
0.017322008
-0.013364532
0.050889086
-0.59539187
-0.04076773
0.03478925
-0.03191941
0.08324561
0.019079724
0.27611455
-0.42320418
-0.2375581
-0.14610817
-0.063202165
-0.047257505
-0.09268176
-0.08348432
-0.13570581
-0.10058207
-0.029561488
-0.15705128
-0.24261823
-0.0814756
-0.04832565
-0.16462268
-0.026621476
0.08502158
-0.19151479
0.20219949
-0.022727076
-0.083964065
-0.09413651
0.025285427
0.048059616
0.22094819
-0.061350342
0.023721743
0.088406704
-0.036372002
0.086800754
-0.08758989
0.008976508
-0.08836849
-0.08404594
0.16854449
0.14365184
0.03540246
-0.09368047
0.034466024
0.012833046
0.036465377
0.008882867
0.06574376
-0.031235678
0.024328273
-0.0441704
0.14711079
-0.008454868
0.01913882
0.06408211
0.02452109
0.03768326
0.034088843
-0.019812725
0.001208434
0.06811606
0.15906873
0.0963962
0.017645214
-0.009847188
0.13708378
-0.11867157
-0.06291929
-0.13594623
-0.024013758
-0.052589852
-0.21407184
0.14069514
0.21187511
0.42147696
-0.64579153
-0.25658593
-0.40476945
0.16054109
-0.1390471
0.61006004
0.2166431
0.3492525
0.5696794
-0.043011796
-0.43942776
-0.018074533
-0.25402114
-0.58240366
0.13829876
0.92940384
0.4820967
0.3220138
-0.3335282
0.5640313
-0.136761
-0.38154712
0.95574397
-0.61401546
-0.0934472
-0.15057887
0.37821293
0.7625659
-0.019780582
-0.019395994
0.31593427
0.4053674
-0.31291583
-0.45284393
0.1284494
-0.27071652
-0.37637717
0.33525392
-0.3857064
-0.5146849
-0.14113472
0.37181273
0.8917549
0.22814253
-0.8928937
-0.113998726
0.060319494
-0.70642835
-0.76652366
0.40771404
-1.337076
1.1514761
0.10672214
0.34687102
0.026044372
0.12593958
-0.4246548
0.3957924
0.5309983
0.37268835
0.08140364
0.15063621
0.046011187
-0.19762242
-0.07278352
-0.17233914
0.015704215
0.15393254
0.01922063
0.12679379
-0.023782503
0.0051443893
0.017401306
0.09211826
-0.102259524
0.069405004
0.01761221
0.012196909
0.053232223
0.040389303
0.04105499
0.08502222
-0.048374016
0.034198083
-0.1978381
-0.102985404
0.099027984
0.1357453
-0.04135761
-0.0018017206
-0.115710594
0.043974906
0.028873332
-0.10650532
-0.0356143
0.06884681
-0.018377265
-0.0451212
0.14800636
0.09883752
0.12599303
0.06335076
-0.06579678
0.040528573
-0.09043675
0.14712784
0.056327526
0.081812814
-0.0023129564
0.16014898
-0.0728173
0.07921711
-0.06634018
0.07861233
0.12560052
0.108753964
0.08709051
-0.02175915
0.053545874
-0.043722488
-0.121718995
-0.1091352
-0.1782153
0.042084977
-0.18380727
-0.24874838
0.019217212
0.41448846
-0.06558757
-0.03553673
0.01904287
-0.33280775
0.111859955
0.1730481
0.040493097
-0.1260813
0.30315533
-0.39585495
-0.11644776
0.111073785
-0.13842885
-0.075791955
0.011159253
0.124533385
0.10242569
-0.056783818
-0.14924504
-0.11103926
-0.0901952
0.49654037
0.0062125456
-0.052126195
0.046875883
-0.08411768
-0.25140122
0.09419436
0.4014963
-0.090942025
-0.07301501
-0.024516013
0.19119456
0.23074253
-2.2976283e-05
0.10800077
0.17305328
-0.07600146
0.07653285
0.07084634
0.10731822
0.06524117
-0.06313371
0.06996415
-0.063011
0.17055549
-0.26326087
0.22984906
-0.2305192
-0.35283622
-0.0982416
0.2043811
0.40483844
0.12018947
0.053515922
-0.15579468
-0.070105664
-0.11108671
-0.06865995
-0.26032883
-0.07518719
0.16075328
0.0322608
-0.07472212
0.011478419
-0.056877516
-0.002385142
0.073890634
-0.061833665
-0.09295867
-0.011237547
0.0374004
0.065753356
-0.19802035
-0.086903736
0.113034315
-0.0011596644
0.028345639
-0.10936241
0.023486514
-0.11335289
0.026687931
-0.012993113
0.011949222
0.096797615
-0.013967164
0.048085026
5.594902e-05
-0.069127254
0.17218493
-0.04803496
-0.21260253
-0.10720826
0.032991167
-0.08143821
0.122807376
-0.05475088
0.04474263
0.08461907
0.014231887
-0.020356731
0.16938563
0.24884482
-0.08872157
0.104011156
-0.001989592
-0.06255569
-0.04904433
-0.036727954
-0.1286221
0.114710554
0.100300446
-0.10219312
0.009049386
-0.12031109
-0.033620536
-0.058416836
-0.058333103
-0.079575956
-0.057462018
-0.13531412
0.049677826
0.0925446
0.11460092
0.1717013
0.21620825
-0.23855628
0.53063405
-0.061886214
-0.080219045
0.14366823
0.12675877
-0.11855675
-0.111314826
-0.17014322
0.20042174
0.31885728
-0.12226195
-0.047731772
0.07366064
0.102273434
0.37225637
-0.32653454
0.355767
0.28296384
-0.2964024
0.20971546
0.2586564
-0.69726497
0.026315581
-0.18255684
0.07164847
-0.53894633
0.34887743
-0.085524954
-0.19581111
0.20597197
-0.14185466
0.18932845
0.04696945
0.31435624
0.34117442
0.03072118
-0.3805474
0.3193574
0.17296723
-0.22087067
-0.67631555
0.076153904
-0.30746987
0.54919523
0.25547597
0.0004079028
0.039202448
0.18327817
0.079922974
-0.20420262
-0.0704496
0.11713942
0.3776397
0.17148364
0.19308996
-0.06551272
-0.12241293
0.21864222
0.17469521
-0.11551322
0.2953444
0.010976144
-0.003215079
0.07663911
-0.05419256
0.025151541
0.10160866
0.052586753
-0.010402901
0.013562697
-0.061776932
0.021136537
0.040078018
0.050185442
-0.025454035
0.030994376
0.11661837
0.07291187
0.1530111
0.052965228
-0.017853271
-0.004537488
-0.035648134
0.12526083
0.0025419572
-0.09426181
-0.21523556
0.11037775
0.020058893
0.019175388
-0.11560683
-0.034210708
0.12422935
-0.11713253
0.07214912
-0.009100569
-0.04628208
0.08215824
-0.027292985
-0.025002249
0.12548964
-0.1074642
0.012202314
0.04886995
0.03750404
-0.08733356
-0.10946538
0.04286594
-0.16623308
-0.036926057
-0.0008056091
0.010945882
0.10727817
-0.09525079
-0.01943633
-0.06744289
0.06306786
-0.065204166
0.080985345
0.072009094
0.087456174
0.019459257
0.030470105
-0.011008557
0.009869585
0.07284217
0.04121632
-0.039498616
0.09453635
-0.008238009
-0.12498592
-0.023909988
0.21131521
-0.057284795
0.022693275
0.08453665
-0.2553504
0.06097215
-0.025305862
0.023667896
-0.12621039
-0.0025018952
-0.10035981
-0.08701784
-0.012110699
-0.11194407
-0.16685435
0.21075056
-0.27309895
0.13757534
-0.042461224
0.041641098
0.0394391
-0.00076756394
-0.13294286
0.0040502474
0.1308764
-0.115512334
0.08460223
0.101546556
0.12212471
0.18399367
-0.028148362
-0.013810823
0.036841914
-0.066234335
0.06589689
-0.0535704
0.055131275
-0.02352391
-0.2095708
-0.03429353
-0.13449183
0.06872602
0.18847977
0.07156851
0.14589731
0.14417274
-0.05191186
0.07407842
0.16523309
0.043127425
0.085368045
-0.21639274
0.06264824
-0.02642625
0.014978169
-0.15323873
0.0944296
0.022816783
0.004755182
0.07917951
-0.12700829
0.031719893
0.14462242
0.041415207
0.08980234
-0.056678638
0.116454735
-0.029249921
0.08075251
0.041461114
-0.11681371
0.091967
-0.09057372
-0.038900748
-0.012896785
-0.01868869
-0.11444299
-0.09383051
0.023227077
-0.01425699
0.066631176
0.093474545
0.0088493265
-0.10035509
0.1333599
0.057164706
0.07993856
-0.020064235
-0.027266717
-0.08161658
-0.06637455
0.03766231
0.042126335
-0.06306692
-0.09159226
0.1012105
0.0027804994
-0.08878121
0.10466085
-0.07988551
-0.048122562
-0.06809101
0.017937306
-0.038750455
0.059499968
-0.045423765
-0.063687965
-0.07288197
0.18206559
0.03266635
0.06605253
0.013732883
-0.00033538096
0.014183642
0.009095221
0.1098292
-0.06320073
-0.06775005
0.15016419
0.00041680934
0.017326185
-0.10560082
-0.0058421385
-0.026280595
0.101365596
-0.011487145
-0.004448753
-0.03279887
0.16684613
-0.08609422
-0.09876741
0.028617265
0.022021296
-0.012500006
0.1290589
-0.10967837
-0.02381197
0.061091755
-0.06393715
0.15959185
0.047135606
-0.15105157
-0.006819214
0.030000787
-0.08449838
0.0012553968
-0.10119897
-0.064525865
-0.08682692
0.033930726
0.059564
0.11444515
0.0962612
-0.017779239
-0.1372232
-0.05652874
0.063278675
-0.093022674
0.028544733
0.06231762
0.104025155
0.05046311
0.006057178
-0.007891412
-0.05660175
-0.05807919
-0.06460099
0.09197188
-0.00858561
-0.14643677
-0.09496416
-0.07482495
0.04677465
0.08638823
0.044902567
0.114585266
0.12193751
-0.089915425
-0.08846636
0.07083226
-0.038706545
0.024960257
-0.13145302
-0.057831295
0.04328802
0.148892
-0.114866234
-0.052181356
-0.05601432
-0.25862518
0.16024368
-0.114840716
0.006682093
-0.09499732
0.038105626
-0.0692341
-0.08602895
-0.19312166
-0.11326296
0.026132874
-0.08811208
-0.046660278
0.015957335
0.053492635
0.117647566
0.060404215
0.072367325
0.005108895
-0.11124642
-0.016957821
-0.19169432
0.055338588
-0.05154602
-0.0670676
-0.081442595
0.07487819
-0.061021592
0.07475838
-0.18981016
-0.13683307
-0.03892623
0.116339
-0.122700766
0.008219063
-0.10373248
-0.08552469
-0.073540464
0.0391647
0.026803657
0.07030287
0.031409208
-0.0057598497
-0.086457714
0.107675
-0.073127374
-0.03873521
-0.0072270897
0.09535709
0.031792298
-0.09042677
-0.18703979
0.13794746
0.0367036
0.050775833
-0.09498605
0.010227146
-0.10608997
-0.09224614
-0.077276744
-0.086303376
-0.06619571
-0.023689223
-0.09698653
-0.0027766752
-0.031407237
0.04120985
0.04387794
0.063762546
0.045300104
0.0044212653
0.016192993
0.0002956355
0.17648914
0.021476034
0.026498714
0.06148955
-0.013662569
-0.008913765
-0.051712748
-0.010361183
0.06419993
-0.10386357
0.074041754
0.07149737
-0.0010497689
-0.16217314
0.07668179
-0.0047279717
-0.043166116
0.010876392
-0.03265693
0.03317076
0.058435623
-0.009345942
-0.00079076516
-0.028763639
-0.015068554
0.01148093
0.112726614
-0.08487842
0.018590726
0.043933585
0.06677725
0.0063955
-0.12154238
0.01093866
0.015877668
-0.0030598787
0.0010433305
0.024198908
-0.042501803
-0.047475662
-0.057368707
0.0093529895
-0.001751991
0.056295116
-0.0032695842
0.021738684
-0.14149706
0.045809463
-0.04070308
0.082235135
-0.052996524
-0.0033301432
0.006449411
-0.0031586029
0.00933981
-0.01619085
-0.031390656
-0.032668613
-0.012880366
0.0143003035
0.0153747015
-0.015856571
0.0012802063
-0.0002467343
0.0038821746
0.36265293
0.0020293954
0.019690977
0.0022081
0.00987925
0.0019911842
0.010701231
0.012576377
-0.0008835091
0.0053556203
-0.010358996
0.014697814
-0.0020239628
-0.00011435372
-0.014239027
-0.016835218
-0.024048897
-0.0058512003
-0.0013949886
0.005851224
-0.11120121
-0.018582147
-0.0006355133
-0.011929904
-0.009354903
0.019856058
0.013282904
0.0048279124
0.0029922163
-0.0019232244
-0.0064454437
0.016013056
-0.010433831
0.021452045
-0.012637198
0.010498281
-0.011903257
0.0050271563
0.03204112
0.008810467
0.006874349
0.027747503
-0.0023521741
-0.012500588
0.0039131707
-0.012806201
0.0050031627
0.015139924
-0.0060276925
0.002702857
0.06931471
0.015532546
-0.0005505205
0.023501063
-0.041692737
0.029476654
-0.20827864
-0.0014323213
0.015204313
-0.013907966
0.021872574
0.02500826
0.033143096
-0.026708633
-0.009609442
-0.0016882162
-0.15352151
-0.03202193
-0.029752664
0.04729285
-0.025516255
0.23293325
0.01906012
-0.022262245
-0.003447788
-0.009559974
0.034017872
0.0085598575
-0.25312805
-0.024979312
-0.068292506
-0.007378552
-0.013400601
0.013389596
0.005164694
0.045826364
-0.0013514756
-0.027998196
-0.019114332
0.08221052
-0.06969175
-0.010731841
-0.1957881
-0.009424783
0.040331967
0.09880216
0.00013422583
0.025600474
-0.057786282
-0.027617088
-0.0228247
-0.018127447
-0.042815443
-0.0008121506
0.11722479
0.009159872
0.028742872
0.020044042
-0.0042520547
0.086373605
-0.005348535
-0.06639813
0.15363984
-0.010007513
0.028389212
-0.009101281
-0.028192323
0.023720691
-0.00972574
0.021801742
0.0040017716
-0.03339958
0.23782642
-0.0012309669
0.02206986
-0.01272815
-0.008095504
0.022684116
-0.0065128994
-0.0033870556
-0.019705787
0.017092207
0.005165731
-4.7793448e-05
-0.010702666
-0.023034997
-0.008559916
-0.0061863414
-0.0019880917
0.0073104934
-0.019644348
0.09390164
0.019915486
0.019799657
-0.00081707723
0.033159945
-0.020570215
0.0170946
0.0105413
0.00728704
-0.0168623
-0.008413224
-0.012208727
-0.012696651
-0.00084648334
0.0011684817
0.0054384456
-0.025627853
-0.0017988563
-0.016465265
0.028605603
0.00828546
-0.012392891
-0.012718625
-0.0007382172
-0.0025076815
-0.0034422616
-0.0034142334
-0.0020075168
0.0013847322
0.010227795
0.03452138
-0.0058343103
-0.0035300313
0.006798645
0.013268606
0.008618634
0.005920955
0.010003311
-0.009134418
0.00971135
-0.030114282
-0.016863195
0.0005158976
0.004350617
0.0025952826
0.0065529915
-0.023244584
0.01997415
-0.008484819
-0.01848644
0.012744667
-0.015123694
-0.025413053
0.007707955
0.004122034
0.0024250154
0.0013000106
0.0046310835
-0.0077788304
-0.010533975
0.03960309
0.019077504
0.017392829
0.026513893
-0.0033424997
0.011090891
-0.016127521
0.014499518
0.16185719
0.04361199
-0.0026548824
-0.13110746
0.0015634438
-0.0277036
-0.07550132
0.24145742
0.004824167
-0.08805577
0.17399323
-0.005673061
-0.0062217177
0.002909357
-0.034514517
-0.07339445
0.00957956
-0.026568694
0.017049832
0.028318526
0.004641219
0.00074003893
-0.04790151
-0.049084548
0.005016018
-0.004150095
0.016333036
-0.009760129
-0.027009776
0.0076452796
0.015081158
0.026975833
0.014130685
-0.0010914719
0.015699204
0.008029216
-0.03743815
0.01871301
-0.032637347
-0.016421683
-0.005621452
0.017987926
-0.031352043
0.0037081775
0.009164458
0.029809946
-0.010379876
0.010578036
-0.076786436
-0.036710076
-0.007400665
-0.078974724
0.02246858
0.0037015683
-0.04521826
0.031135265
0.029695895
0.0075771487
0.037794586
-0.03752495
-0.014302932
0.059703793
0.008062787
-0.0037741286
0.0034244084
0.031907093
-0.07691476
-0.032726035
0.042553335
-0.0062734396
-0.015679445
0.021417785
0.012910552
0.041756254
0.007843305
0.035474475
0.017491732
0.013225415
-0.033208143
0.008934712
-0.0064335605
0.021703506
0.032082148
-0.064140156
-0.0053338115
0.009072396
0.0016953569
0.025184706
-0.025771994
-0.02609298
-0.025126647
0.013111454
0.008175624
0.018341372
-0.0015564552
-0.025755757
-0.012457622
-0.02123698
-0.0016461133
-0.03175204
-0.16752847
0.06330138
0.0149255805
0.01443452
0.0053433683
-0.00707291
-0.0036091835
0.04941896
0.03488987
-0.016447937
-0.015532966
-0.055964876
-0.108116545
-0.011285899
-0.029257469
0.022133885
-0.007821765
-0.003929367
0.014260355
0.030749595
-0.015758796
-0.0033850146
0.048760086
0.007451029
-0.013734084
0.013866814
-0.003941544
-0.028112333
0.010691609
-0.01932677
-0.031293552
-0.031701624
0.052255712
-0.015029135
-0.05130686
0.0075135594
0.028435916
-0.01906874
0.055633016
0.05615835
-8.629308e-05
0.013201165
-0.011915991
-0.121462226
0.016175115
0.01005949
-0.039209835
-0.14297369
0.10056761
0.0036480129
0.02515073
-0.0466492
-0.04432457
0.011835037
0.00802042
-0.025763223
-0.0023035917
0.06079556
-0.006466025
0.003558429
-0.00812971
-0.013263589
-0.008622509
-0.0023425734
-0.005750161
-0.008205533
-0.02601508
0.0047930996
-0.0051722787
0.014548842
0.01861622
-0.013360258
-0.0005202668
0.0148104075
0.044437412
-0.007507947
-0.05010054
-0.0033949097
-0.011074144
0.004021635
0.0039405106
0.009249841
-0.006725898
0.0020677384
-0.010283398
-0.010219394
-0.0051923622
0.032672927
-0.0064259027
0.0144187575
-0.019283962
0.017999927
0.030640373
-0.013740064
-0.008787648
-0.0048286202
-0.016799822
0.016930085
0.0021806024
0.006892571
0.009185712
-0.0048601488
-0.017622013
-0.014487373
0.0056307856
0.001115858
0.010613253
0.0025630838
0.00038815694
0.018367346
-0.0039545195
0.009290193
0.00096028106
0.014265682
0.005353771
0.020232905
0.0053281346
-0.023707485
-0.0027722926
0.034928553
-8.048743e-05
-0.010331823
0.00582187
-0.0020973803
0.009685692
-0.036127046
-0.05392085
-0.0064841467
0.020526543
-0.016756145
-0.018475452
-0.014255225
-0.00012655718
0.010083376
-0.04280855
-0.0021988577
0.0053611845
0.00495937
0.03428253
0.006460884
0.0026335728
0.008572452
0.0005028179
0.025331486
-0.013682173
0.025716815
-0.0071207774
-0.034542203
-0.009871049
0.070374675
0.059460614
0.010212898
0.20828408
0.03743093
0.01726238
0.002533276
0.0182182
-0.036610197
0.024601996
0.026409296
-0.08017838
-0.01573703
-0.020609146
-0.058952365
0.061822012
0.01919159
-0.0019248066
-0.008078103
-0.033350393
-0.031157298
0.049751148
-0.0053954
0.019880442
-0.012301395
0.03227707
0.01874343
0.037423477
0.011981343
0.004702765
0.047807634
0.005531211
0.03785756
0.02415388
-0.017881522
0.03067557
-0.033455443
-0.01965309
-0.015552145
0.04780777
0.17240126
-0.023577044
-0.007557754
-0.017917933
-0.0019478182
-0.03371741
-0.00061581854
-0.013132332
0.013202595
0.022831693
0.01030244
-0.0035257447
-0.020750998
0.0050033736
0.005980155
-0.036511667
-0.013080314
-0.020132707
0.013595661
0.017649177
-0.0012621899
-0.018904679
-0.0034391163
-0.030269507
-0.002886579
-0.023573332
-0.10162097
0.0064881206
0.0023252747
-0.002774409
0.009585944
-0.015180398
0.00537576
-0.014200301
0.0042290324
0.00928473
0.016734812
0.0023371843
0.004848484
0.022092367
0.008464142
-0.022799794
-0.019777372
-0.049037483
-0.017493779
0.0018090529
0.016369835
-0.028039979
0.00027729798
-0.022719698
-0.020116068
0.023071196
-0.013692845
0.019047994
-0.0022645935
-0.01979184
0.001586279
0.026097352
-0.002690268
0.014690421
-0.03595511
0.010524297
0.00055327505
0.00053163647
-0.014445837
0.060738105
0.011181756
-0.0013355358
0.146434
-0.016650481
-0.041941628
-0.015449885
0.013273127
0.13349001
-0.006549666
0.016658748
0.121349834
-0.047621116
0.010883163
-0.04699816
0.005417352
-0.03607667
0.010336478
-0.01448474
-0.004586047
-0.050658174
-0.029140593
-0.010627377
0.006166547
-0.20476495
0.07275805
0.016739989
-0.014274381
-0.0066288207
0.03179629
-0.099810906
0.0889715
0.09433296
0.015429257
-0.014463309
-0.0035402817
0.092563644
0.06105268
0.025596386
-0.012573608
-0.018798893
-0.00026786624
0.013602853
0.21990243
-0.006952896
-0.010506457
-0.009038603
-0.1631079
0.064561635
-0.026571214
0.03708024
0.03918022
0.106241405
0.0010435603
-0.022330945
-0.0069479286
-0.018481178
-0.040190514
0.04589623
0.050599176
-0.001979012
0.0038681072
-0.011313847
-0.006180564
-0.0017210776
0.010011798
-0.032448124
-0.013445073
-0.0021539738
-0.01127443
0.06023198
0.013094353
0.3154509
-0.06376178
-0.0044312505
0.027638735
-0.011763154
0.058962695
0.0004813052
0.021730589
0.026604496
0.0009906687
-0.080681644
-0.03958169
0.011643107
0.013029031
-0.2008595
0.0046576387
-0.0014553992
-0.013570999
-0.010530813
0.014220926
0.0031527686
0.006942636
0.011208152
0.030625394
-0.029779045
-0.09276206
-0.013118184
0.007660012
0.013637042
-0.039167225
0.011092216
0.029753521
-0.020751944
0.006125772
0.02334307
-0.0076225987
0.013169041
0.008732317
0.043228947
0.03191801
0.03550776
-0.019571286
-0.029392492
0.0058622886
0.044898737
0.012506537
0.04773866
0.014238547
-0.00029909695
0.004101035
-0.010665171
-0.014778882
-0.02102274
0.0008254138
0.023023522
0.006406474
0.008856838
-0.032604754
-0.2547259
-0.025580574
-0.1098963
-0.019865569
-0.02899784
-0.011633376
0.13171361
-0.036865167
0.033871323
0.00062161835
0.014755913
0.112225704
-0.011679123
-0.0020018967
-0.074985854
0.00041784803
0.0041067805
-0.022308417
0.007571932
0.014712567
-0.021524163
0.011805977
0.013202443
-0.022520257
0.00115024
0.031655807
0.049123023
0.018232197
-0.011979006
-0.019605253
0.009491215
0.049299568
-0.030540604
-0.03383565
0.0451897
0.054549698
0.015297472
0.014782156
-0.13214248
-0.043125864
-0.026976934
-0.0106620025
0.018523216
0.014272381
0.011650454
-0.05418397
-0.008975951
0.0033656883
0.046793256
-0.11415249
0.039377805
0.025553267
-0.0154823195
-0.09690751
-0.02121431
-0.057523433
0.026141895
0.011905508
0.012504344
-0.05011645
0.0031926266
